%YAML:1.0
opencv_ml_ann_mlp:
   format: 3
   layer_sizes: [ 48, 20, 6 ]
   activation_function: SIGMOID_SYM
   f_param1: 6.6666666666666663e-01
   f_param2: 1.7159000000000000e+00
   min_val: -9.4999999999999996e-01
   max_val: 9.4999999999999996e-01
   min_val1: -9.7999999999999998e-01
   max_val1: 9.7999999999999998e-01
   training_params:
      train_method: BACKPROP
      dw_scale: 1.0000000000000000e-03
      moment_scale: 0.
      term_criteria:
         iterations: 10000
   input_scale:
      - 1.8703901341342417e-08
      - 1.0954450653366612e+00
      - 1.8703901514123871e-08
      - 1.0954450838889263e+00
      - 1.8703901375092200e-08
      - 1.0954450689605162e+00
      - 1.8703901511683188e-08
      - 1.0954450836268599e+00
      - 1.8703901606068668e-08
      - 1.0954450937614231e+00
      - 1.8703901586411585e-08
      - 1.0954450916507601e+00
      - 1.8703901238395148e-08
      - 1.0954450542827836e+00
      - 1.8703901543603900e-08
      - 1.0954450870543198e+00
      - 1.8703901638745678e-08
      - 1.0954450972700900e+00
      - 1.8703901490068611e-08
      - 1.0954450813060126e+00
      - 1.8703901540017152e-08
      - 1.0954450866691963e+00
      - 1.8703901608573590e-08
      - 1.0954450940303868e+00
      - 1.8703901631622379e-08
      - 1.0954450965052318e+00
      - 1.8703901515947920e-08
      - 1.0954450840847818e+00
      - 1.8703901566330869e-08
      - 1.0954450894946099e+00
      - 1.8703901519480636e-08
      - 1.0954450844641044e+00
      - 1.8703901697555218e-08
      - 1.0954451035847159e+00
      - 1.8703901589698030e-08
      - 1.0954450920036392e+00
      - 1.8703901575751212e-08
      - 1.0954450905061113e+00
      - 1.8703901543179506e-08
      - 1.0954450870087511e+00
      - 1.8703901573021463e-08
      - 9.1287090437795138e-01
      - 1.8703901527871351e-08
      - 9.1287089952999523e-01
      - 1.8703901694793232e-08
      - 9.1287091745309457e-01
      - 1.8703901517382827e-08
      - 9.1287089840379876e-01
      - 1.8703901544190639e-08
      - 9.1287090128226533e-01
      - 1.8703901576935662e-08
      - 9.1287090479823529e-01
      - 1.8703901462873682e-08
      - 9.1287089255092468e-01
      - 1.8703901527252676e-08
      - 9.1287089946356548e-01
      - 1.8703901680487908e-08
      - 9.1287091591707215e-01
      - 1.8703901507052760e-08
      - 9.1287089729461623e-01
      - 1.8703901414965760e-08
      - 9.1287088740685118e-01
      - 1.8703901577906855e-08
      - 9.1287090490251621e-01
      - 1.8703901410838754e-08
      - 9.1287088696371732e-01
      - 1.8703901519280660e-08
      - 9.1287089860757697e-01
      - 1.8703901632975401e-08
      - 9.1287091081545602e-01
      - 1.8703901510166705e-08
      - 9.1287089762897355e-01
      - 1.8703901345567927e-08
      - 9.1287087995531635e-01
      - 1.8703901572226281e-08
      - 9.1287090429256945e-01
      - 1.8703901286700206e-08
      - 9.1287087363444375e-01
      - 1.8703901520891346e-08
      - 9.1287089878052319e-01
      - 1.8703901607860262e-08
      - 9.1287090811873861e-01
      - 1.8703901503304570e-08
      - 9.1287089689215750e-01
      - 1.8703901272845090e-08
      - 9.1287087214676199e-01
      - 1.8703901572628132e-08
      - 9.1287090433571794e-01
      - 1.8703901217338098e-08
      - 9.1287086618674473e-01
      - 1.8703901517413399e-08
      - 9.1287089840708147e-01
      - 1.8703901546409855e-08
      - 9.1287090152055206e-01
      - 1.8703901502729438e-08
      - 9.1287089683040323e-01
   output_scale:
      - 5.2631578947368418e-01
      - 4.9999999999999994e-01
      - 5.2631578947368418e-01
      - 4.9999999999999994e-01
      - 5.2631578947368418e-01
      - 4.9999999999999994e-01
      - 5.2631578947368418e-01
      - 4.9999999999999994e-01
      - 5.2631578947368418e-01
      - 4.9999999999999994e-01
      - 5.2631578947368418e-01
      - 4.9999999999999994e-01
   inv_output_scale:
      - 1.8999999999999999e+00
      - -9.4999999999999996e-01
      - 1.8999999999999999e+00
      - -9.4999999999999996e-01
      - 1.8999999999999999e+00
      - -9.4999999999999996e-01
      - 1.8999999999999999e+00
      - -9.4999999999999996e-01
      - 1.8999999999999999e+00
      - -9.4999999999999996e-01
      - 1.8999999999999999e+00
      - -9.4999999999999996e-01
   weights:
      -
         - 2.5442020448077838e-02
         - 3.0849051944690309e-01
         - 6.3885008865602250e-02
         - 1.3063294472256720e-01
         - 2.6103534639130357e-02
         - 3.3443916863763612e-01
         - 8.6577707499767745e-02
         - 1.1762401240820379e-01
         - 2.7257848992588979e-01
         - -4.7633050203178634e-01
         - 1.1556889689754164e-01
         - 2.7129684877596533e-01
         - -7.4107664607919163e-02
         - -1.6357362991278743e-01
         - -2.3812650270475572e-01
         - 2.2031058670826181e-01
         - 1.5110884558710749e-01
         - 1.9553598338464745e-01
         - 5.2478369736532648e-01
         - 4.2390453441334530e-01
         - 6.4882972857293053e-02
         - 2.6869479737933782e-01
         - 6.1317512476457545e-02
         - 1.0795837617671933e-01
         - 4.8167964439961568e-02
         - 3.0709866345559772e-01
         - 1.2906712416876609e-01
         - 9.8796173441063687e-02
         - 3.2744865016261449e-01
         - -4.2906282136551510e-01
         - 6.7356802050257986e-02
         - 2.1821927611874298e-01
         - -1.4778910550233668e-01
         - -1.6305329463119320e-01
         - -3.1612418402812559e-01
         - 2.2577697169641439e-01
         - 1.5592757227842471e-01
         - 2.0573577066381682e-01
         - 4.7245334540339423e-01
         - 4.2895857751929511e-01
         - 4.0749267889733674e-02
         - 3.0671242385114056e-01
         - 7.2368562172573730e-02
         - 1.1012805670648992e-01
         - 4.4208556610553555e-02
         - 3.1056430328303919e-01
         - 9.0348844212180812e-02
         - 1.0803868921058801e-01
         - 2.8318166670659356e-01
         - -4.4988598804133367e-01
         - 8.0531972628338000e-02
         - 2.4899828327091403e-01
         - -8.6451783944556534e-02
         - -1.5382174912766888e-01
         - -3.0166113474266604e-01
         - 2.5888162983874735e-01
         - 1.1097648099706058e-01
         - 2.1766745467784956e-01
         - 5.3142707678938605e-01
         - 4.2097108816735734e-01
         - 2.4861668719116652e-02
         - 2.7763688159704047e-01
         - 8.8719404780738309e-02
         - 1.3177152951011631e-01
         - 5.4708199264204060e-02
         - 3.5710544552216372e-01
         - 1.1170589026237353e-01
         - 1.4870203703477169e-01
         - 3.2518390689658971e-01
         - -4.3800034877918853e-01
         - 7.3579768280956442e-02
         - 2.4144103065420564e-01
         - -1.1667417985382880e-01
         - -2.1321570474749979e-01
         - -2.8024662988083698e-01
         - 1.9854821255267352e-01
         - 1.3211349190744037e-01
         - 2.4975118447549979e-01
         - 4.6511900618874841e-01
         - 4.3347634589544620e-01
         - -1.0435396540322589e-01
         - -6.1523466787242839e-02
         - 3.4940932539013442e-01
         - -1.9228903086094557e-02
         - 2.6932091889141513e-01
         - 2.5681890574509474e-02
         - -1.4040138004027095e-01
         - 2.0104348127383012e-01
         - 1.5239698648740579e-01
         - -3.1530584372658205e-01
         - -1.4959516429381073e-01
         - 5.8078586134190369e-02
         - -4.9303365210043658e-02
         - 2.4737417628695205e-01
         - -5.9037349337072786e-01
         - -1.0784134213230222e-01
         - -8.2368951393106099e-02
         - -2.7471206628485856e-01
         - -7.9037591168649446e-02
         - -5.2961077207584384e-01
         - -9.6674533815902852e-02
         - -1.1855416010460788e-01
         - 3.4705357182674523e-01
         - -5.5826669813676087e-02
         - 2.3329301241945716e-01
         - -1.9625093488737942e-02
         - -1.1498993160883569e-01
         - 2.5217573110744163e-01
         - 2.1019253997392878e-01
         - -3.1187299102423166e-01
         - -1.3490366513268243e-01
         - 9.8027263173548235e-02
         - -7.9505399226028325e-02
         - 1.8875840993613058e-01
         - -6.3300656676218259e-01
         - -1.4092388705623332e-01
         - -5.1245783047990989e-02
         - -2.7704453061030881e-01
         - -8.8268222711771538e-02
         - -5.2929063736665494e-01
         - -4.8438265899514291e-02
         - -8.7830334873061300e-02
         - 2.9976051901016393e-01
         - -1.7057828557665713e-02
         - 2.7327817373901842e-01
         - -5.9596550732731006e-02
         - -1.0869142776516362e-01
         - 1.9532296619968634e-01
         - 1.7514808885733418e-01
         - -3.4469028131795515e-01
         - -1.0693275353152094e-01
         - 9.0833227424243365e-02
         - -2.5351913297207575e-02
         - 2.3345243316451664e-01
         - -6.3692863527144039e-01
         - -1.3612297542427407e-01
         - -5.2956374424437347e-02
         - -2.6794988574150536e-01
         - -1.4674449318076602e-01
         - -5.6982130317165280e-01
         - -9.2688799865817184e-02
         - -8.9457146282017660e-02
         - 2.8754726963180038e-01
         - -1.6924457720128103e-02
         - 2.4698017311410039e-01
         - -3.7898414220176077e-02
         - -9.8867598934761200e-02
         - 1.9751677584375479e-01
         - 2.0432831828634412e-01
         - -3.1168001925533056e-01
         - -1.2511084874004871e-01
         - 8.1921369942679317e-02
         - -7.6987945284296130e-02
         - 2.3674401752202079e-01
         - -5.9171806154323225e-01
         - -1.5632367798376620e-01
         - -4.3621638857745323e-02
         - -2.9515204031293751e-01
         - -1.4462414292216880e-01
         - -5.2334475626237653e-01
         - 3.7541061967929668e-02
         - 7.1785835519849489e-02
         - 4.9713001082103171e-02
         - -6.6978981630366422e-03
         - 3.1630012861023182e-01
         - -1.9158976397653676e-01
         - -9.8698798355171882e-02
         - -1.1760421744507914e-02
         - 4.7223284084731099e-01
         - 1.5658581161675658e-01
         - 7.7829410906078603e-02
         - -1.0595405528181442e-01
         - -4.3777677246226734e-02
         - -6.4046999420557985e-02
         - -2.9669620346242970e-01
         - -6.5017222392417570e-02
         - 2.1592521574175194e-01
         - 3.3342270807252355e-01
         - 2.2927429395565296e-01
         - 2.8293906862674027e-02
         - 8.2789073455371578e-02
         - 1.2867078601155715e-01
         - 6.8965080965129960e-02
         - -2.4611021195520895e-02
         - 2.7810112928780684e-01
         - -2.7168804987201767e-01
         - -7.8042054539036135e-02
         - 2.6791221223777376e-02
         - 4.8929319727625409e-01
         - 1.6451017724274075e-01
         - 1.2543228629987892e-02
         - -9.6262287035451533e-02
         - -8.1976022722471245e-02
         - -1.4679739121395217e-03
         - -2.5276173003343866e-01
         - -3.6457886753517986e-02
         - 1.7704056876888316e-01
         - 3.4834849982959443e-01
         - 2.0164281843051812e-01
         - 2.2883228321777197e-02
         - 8.4887144587790481e-02
         - 1.0994131036795245e-01
         - 6.4077202451631385e-02
         - -2.3147868000765903e-02
         - 2.9657638818004195e-01
         - -2.3832824291062213e-01
         - -1.4304531468778695e-01
         - 2.3481011323270264e-02
         - 4.8468343873265041e-01
         - 9.9684839281788354e-02
         - 1.0958920137422577e-02
         - -8.9940955446592655e-02
         - -8.0559658062186554e-02
         - -6.5329549203561668e-02
         - -2.5016835721801584e-01
         - -1.5058865703580832e-02
         - 2.1752401162502744e-01
         - 3.4436773878407201e-01
         - 2.6805043905573100e-01
         - 4.7919206844535718e-02
         - 6.1744422363968307e-02
         - 1.2582382868874384e-01
         - 9.6295420724146569e-02
         - 2.0609010262568454e-02
         - 2.8440411101592550e-01
         - -2.0462712558714968e-01
         - -1.3702489842597274e-01
         - 3.4440845719904079e-02
         - 4.2021953865078648e-01
         - 1.6130708037394312e-01
         - 3.3608048959605386e-03
         - -3.3840306526045118e-02
         - -6.3233503426687765e-02
         - -9.0154446905832305e-05
         - -2.4572752195289060e-01
         - -6.0143005235771201e-02
         - 2.2415257079042894e-01
         - 3.8037462282506235e-01
         - 2.2196004290361462e-01
         - -2.0797800808043759e-02
         - -5.1581839707713358e-02
         - 3.4112100529596523e-01
         - 7.6402280767845318e-02
         - -4.6267694163287321e-03
         - 3.4052771983360974e-01
         - -5.2430621179996827e-02
         - 1.1433461067227889e-01
         - 5.8136550241929430e-02
         - 1.3136462745185754e-01
         - 2.0211029042655060e-01
         - -4.3894477085632495e-02
         - -3.9370940023340094e-02
         - 1.9558949631349271e-02
         - -6.3132888112317320e-02
         - -2.3319252389061024e-01
         - 3.4890432146531945e-02
         - 4.7283828586607751e-01
         - 1.5890672035356943e-01
         - 1.0467931537403603e-01
         - 1.5275941841582402e-01
         - -4.8663650531605221e-02
         - 3.4864211916376042e-01
         - 6.9994832421423708e-02
         - -1.0457451088847578e-02
         - 3.4220822446889843e-01
         - -7.1323746151730830e-02
         - 1.1453605840065226e-01
         - -8.1773917092068011e-04
         - 1.5569406089648460e-01
         - 1.9044129289614686e-01
         - -7.7491965048396769e-02
         - -5.8537754239222646e-02
         - 4.6738902755312688e-03
         - -4.6010291182053076e-02
         - -3.0572933067439434e-01
         - 3.0258424550714081e-02
         - 4.4139360260266280e-01
         - 1.6726141859746385e-01
         - 1.0876461909874678e-01
         - 8.8572854500940393e-02
         - -4.3639000986802678e-02
         - 3.7109037132199496e-01
         - 2.1077249760580792e-02
         - 3.0666332278039984e-02
         - 3.1110640467876566e-01
         - -3.3366786729025176e-02
         - 8.4450837138837748e-02
         - -4.6028949645887717e-04
         - 1.2106692293076812e-01
         - 2.2398214871397254e-01
         - -7.4006377476550547e-02
         - -4.1348535456390730e-02
         - 5.7622850887971665e-02
         - -5.7631050430913572e-02
         - -2.8373409780848641e-01
         - -3.9381444333160119e-02
         - 4.7393389738464137e-01
         - 1.9063874834217689e-01
         - 1.3353408878977802e-01
         - 1.5277000801213647e-01
         - -5.1919108688676115e-02
         - 3.4745946753104340e-01
         - 6.6919969338334231e-02
         - -2.7919453864017306e-02
         - 3.3981183934843601e-01
         - -1.9117700519304344e-02
         - 1.1195585650795814e-01
         - 1.8522853757905626e-02
         - 1.5344284086573393e-01
         - 2.3516094672729670e-01
         - -3.1741910787777793e-02
         - -7.2391651424243308e-02
         - 5.8657505615028513e-02
         - -9.0581588305447991e-02
         - -2.4646175198442610e-01
         - -2.3631848666595609e-03
         - 4.9882435111465673e-01
         - 2.1449104373001743e-01
         - 1.0805472945703407e-01
         - 1.0420407413441313e-01
         - -1.2305706302067236e-01
         - 3.1215474694942517e-02
         - -1.0249722238182501e-01
         - -1.6111021050605284e-01
         - -9.3921253752912659e-02
         - -1.2078797826652395e-01
         - 5.5073539219919816e-02
         - 9.2269212800827158e-02
         - -1.6861690149102923e-01
         - -1.3937367096089037e-01
         - 2.3641646125383714e-01
         - -2.1912253929135900e-02
         - -3.2923893506916706e-02
         - -1.4765579827420919e-01
         - -3.3215317420748186e-01
         - -7.3084808260684836e-02
         - -1.5685977387229381e-02
         - 1.0723267232904397e-01
         - 1.1474854596934787e-01
         - 1.0114177282556125e-01
         - -1.0493629318388797e-01
         - 9.3453321981349258e-02
         - -1.2503245122264686e-01
         - -1.6338122840595451e-01
         - -1.3050029782525166e-01
         - -1.5740390789544595e-01
         - 4.6449243493332674e-02
         - 1.2612456877497061e-01
         - -1.6833286018962271e-01
         - -1.6610338341644779e-01
         - 1.8184711275423093e-01
         - -2.6124707814716680e-02
         - -2.6575370221506748e-02
         - -8.6052291661605065e-02
         - -3.2176351155479255e-01
         - -5.1561639763068948e-02
         - -5.2463993246369765e-02
         - 1.4242920567967382e-01
         - 1.6170973804061442e-01
         - 1.5515513997161706e-01
         - -1.1925389725564398e-01
         - 3.1399211782755641e-02
         - -9.4626412037587954e-02
         - -1.8999474952715611e-01
         - -1.6484135953995199e-01
         - -1.5110424458082328e-01
         - 6.1727170890404096e-02
         - 1.0770057136534637e-01
         - -1.3535835020239217e-01
         - -1.7592512138168986e-01
         - 2.3632545788973502e-01
         - 1.0865204086989188e-02
         - -3.0396905593988301e-02
         - -9.0918533954114006e-02
         - -2.8475138543074341e-01
         - -9.5672725057930466e-02
         - 4.9699943872059656e-04
         - 1.4092184865651841e-01
         - 1.3877644482530249e-01
         - 1.2681034462716789e-01
         - -1.1496376443345183e-01
         - 7.7254178845319182e-02
         - -9.1042095972733939e-02
         - -1.6335501269333030e-01
         - -1.1892593336344158e-01
         - -1.7915497178266351e-01
         - 2.7918071601365797e-02
         - 7.8331149895068883e-02
         - -1.4413155926248358e-01
         - -1.4978488090997705e-01
         - 2.2612573867863198e-01
         - -4.8970996320645069e-02
         - -4.5492266343629080e-02
         - -1.4431114124709205e-01
         - -3.3191416041957422e-01
         - -5.3639671133768961e-02
         - -2.8507829396762809e-02
         - 1.2461954764956031e-01
         - 1.5577331087421126e-01
         - 1.5830494787345517e-01
         - 1.2955506471562924e-03
         - -1.4505562351132051e-01
         - -1.1500101814574148e-01
         - 3.8728070423064052e-02
         - 1.4357309749997835e-01
         - -5.5196738955004376e-02
         - -7.3418807064021957e-02
         - 3.8429116226845042e-02
         - 6.3147702169895889e-02
         - 1.5204798855579946e-01
         - -1.7925864440064748e-02
         - 5.3691904840427657e-02
         - -3.9666005759063754e-02
         - 5.5384018804743255e-03
         - -5.4513222410911737e-03
         - -4.3676096110804502e-02
         - -9.3426588408874078e-02
         - 2.2796721191996792e-02
         - 5.0369326386744372e-02
         - 1.2979387716528690e-01
         - -3.9692882408922492e-02
         - -1.4350295794282777e-01
         - -5.1255515524014458e-02
         - 8.1523375865334841e-03
         - 1.3557957465782763e-01
         - -3.9944192620337007e-02
         - 5.0898492775192303e-03
         - 8.6737307883637080e-02
         - 2.7359063644629329e-02
         - 8.6831683357733142e-02
         - -1.4222117927486380e-02
         - 8.2313267393686398e-02
         - 2.9242056839900617e-02
         - 1.1523263962975080e-02
         - 1.0818880648910397e-02
         - -5.3352800383640646e-02
         - -1.2770557654979559e-01
         - 1.4026174770053176e-02
         - 6.3442220473029012e-02
         - 9.9946843949416761e-02
         - -2.8789616190854839e-02
         - -1.4399188645516509e-01
         - -7.1219146079599630e-02
         - -5.8619836482499405e-05
         - 2.0501245594553802e-01
         - -6.7804649362199335e-02
         - -1.0557560387471836e-02
         - 1.7934748291000523e-02
         - -3.9987559766762534e-03
         - 1.3383870853376009e-01
         - -1.6866876582176695e-02
         - 9.6454311149122826e-02
         - -4.7797474743644021e-02
         - -2.4761243638492924e-02
         - -4.6569465656014193e-03
         - -3.2008487987187306e-02
         - -7.1207888927624002e-02
         - 7.2851932914810083e-02
         - 4.7816997366444909e-02
         - 1.5330529946372035e-01
         - -4.5146758346080056e-02
         - -8.4225360745287317e-02
         - -8.3644874937526287e-02
         - 8.3726316560530402e-03
         - 2.0278757133879652e-01
         - -5.6862903792519584e-02
         - -6.9744928443392584e-02
         - 5.1923504553222727e-02
         - 4.5469568136141522e-03
         - 1.1226071937182840e-01
         - -5.7981018356252988e-02
         - 1.0297615925972632e-01
         - -4.8942133659405390e-02
         - 1.2315662722067659e-02
         - -3.2037299282132677e-02
         - -4.2725180742974808e-02
         - -1.2999191029214185e-01
         - 6.4173358736180408e-02
         - 4.2065292566466940e-02
         - 1.5201262786718367e-01
         - 4.3747810948899096e-03
         - -1.3491080824162388e-01
         - -5.5456849068313281e-02
         - 3.2217897574578200e-02
         - 1.9800447057348738e-01
         - -8.1752410551044936e-03
         - -6.5517794972694493e-03
         - 6.7016456012140138e-02
         - 5.0826077986738383e-02
         - 1.0867396222222259e-01
         - -4.3481068175261747e-02
         - 1.0227854610867414e-01
         - 2.3102548116046458e-02
         - 1.7887363529157249e-02
         - 2.1414482614291391e-02
         - -6.1097445070838974e-02
         - -1.2154153785928412e-01
         - 1.8170026510971538e-02
         - 2.4205228195689234e-02
         - 1.3960783082139042e-01
         - -5.1149561330906285e-02
         - -1.3600755416421706e-01
         - -3.9997392744721472e-02
         - 1.0995846848998294e-02
         - 2.0750197964736627e-01
         - -2.2790493381619214e-02
         - -2.4548312354064811e-02
         - 7.5027591665372761e-02
         - -1.5970029280202112e-02
         - 1.3441181720096940e-01
         - -3.4632988113000294e-03
         - 1.3219622262584965e-01
         - 2.2916086995588461e-02
         - 2.4352891758700170e-02
         - 1.5941750010053619e-02
         - -3.6865469198388873e-02
         - -9.5173869891981011e-02
         - 3.4556167842119435e-02
         - 3.6559468397583672e-02
         - 1.6728190934897608e-01
         - -4.8389275385208826e-02
         - -1.0908453474123597e-01
         - -1.1515030190830094e-01
         - -3.0127909389612993e-02
         - 1.4898884868806508e-01
         - 3.9315181672113066e-03
         - -2.4314090221359965e-02
         - 2.8929109604656948e-02
         - 2.9588011040845921e-02
         - 1.2009141806970892e-01
         - -4.3489538310162182e-02
         - 1.3074809285980638e-01
         - 3.3275138077257637e-03
         - 3.6192703061856159e-02
         - -3.1718261612700166e-02
         - -4.6476676946464700e-02
         - -6.8979327009652092e-02
         - 1.3153816132946765e-02
         - 6.4924816460225715e-02
         - 1.1596753549604587e-01
         - -5.1521045802333194e-02
         - -9.8391078380681757e-02
         - -9.5881075407723670e-02
         - -3.0222991802787754e-03
         - 2.0005315631964021e-01
         - -1.6610543362082168e-02
         - -2.9593459473660606e-02
         - 6.4525180503472834e-02
         - 5.6442790295051955e-03
         - 8.1230677345421248e-02
         - -2.1458748932277970e-02
         - 1.3707127622233917e-01
         - -4.9888788187160499e-02
         - -2.1863402920868542e-02
         - -6.0221966811649555e-02
         - -3.4963753647072625e-02
         - -9.9968560339823237e-02
         - 4.8115067137916745e-02
         - 2.5870576682773365e-02
         - 1.5848331415407607e-01
         - 7.2284874195106983e-03
         - -1.3168089297466751e-01
         - -8.4522787852936335e-02
         - 4.1433536457203948e-02
         - 1.9067054023398897e-01
         - -5.8670647655277880e-02
         - -1.7198100231690123e-02
         - 9.3915119516403564e-02
         - -2.7695361492567944e-03
         - 9.4162558228908719e-02
         - -3.0724008729370231e-02
         - 8.2671997130354863e-02
         - -4.8652700514757166e-03
         - -1.3731441505076016e-02
         - -3.9857499800869375e-02
         - -2.6670326365649571e-02
         - -1.3754479672542810e-01
         - 7.2479051701830707e-02
         - 2.3150888548879350e-02
         - 1.4948162649438115e-01
         - -4.7639561063649270e-02
         - -9.6758836989551997e-02
         - -8.7530716141073148e-02
         - 5.5661232644266629e-03
         - 2.1160077956299309e-01
         - -6.4670858933955815e-03
         - -2.9020220814348859e-02
         - 5.7164689430190964e-02
         - -5.1007069807347885e-03
         - 8.1926476951336480e-02
         - -3.7639471718907774e-02
         - 6.1798741069930926e-02
         - -1.0807639331332492e-02
         - -9.3097044944320702e-03
         - -5.5892845105398922e-02
         - -5.4877950043630996e-02
         - -1.2740596237898721e-01
         - 8.4458201950611628e-02
         - 2.8122112313555572e-02
         - 1.6354914697053580e-01
         - -4.7228454656897449e-02
         - -1.0609698684481088e-01
         - -5.7589323157357812e-02
         - -2.5096417810425795e-02
         - 1.6215875378362452e-01
         - -3.5895338059930781e-02
         - -7.4899807092719511e-02
         - 9.5416292096255517e-02
         - 6.1613067691839767e-02
         - 1.2949413640399904e-01
         - -5.1710637927635715e-02
         - 1.2076894688327544e-01
         - 6.8806446064351989e-03
         - 2.5451315149473228e-02
         - 7.8775060032944266e-03
         - 2.3732061833333902e-03
         - -1.1051654108040922e-01
         - 6.1297584943711438e-02
         - -3.8947712825760348e-04
         - 1.6299770396133292e-01
         - -4.1951803405023500e-03
         - -1.5149060408436468e-01
         - -6.4263640292502894e-02
         - 2.7833451266160641e-02
         - 1.3512416670546651e-01
         - 4.4038117857985119e-03
         - -7.3684168660043903e-02
         - 7.5173876305805465e-02
         - 3.2975657032764900e-02
         - 1.2242416936634083e-01
         - -4.9786615393396745e-02
         - 7.5085760490286674e-02
         - 7.7025148734647820e-03
         - -9.4048211926933377e-03
         - -1.5437953930732808e-02
         - -2.7795381748150650e-02
         - -1.3381803018747279e-01
         - 3.9640949457656297e-02
         - 5.1625783810564589e-02
         - 1.0656791798804564e-01
         - -2.4839754969203050e-02
         - -1.4387740357486731e-01
         - -7.0207853769272230e-02
         - 3.7988338987899106e-02
         - 1.8506092243816188e-01
         - 1.1969401251958353e-02
         - -3.3207406511838511e-02
         - 4.9674176450419799e-02
         - 1.6672118924780408e-02
         - 9.7237149407929616e-02
         - -2.6837698759612787e-03
         - 1.3425652848591640e-01
         - -1.0809757343039574e-02
         - -2.8509147999421371e-02
         - -2.7750243252432749e-02
         - -6.4787989321654443e-02
         - -7.6153107446982768e-02
         - 1.8967983222709078e-02
         - 5.0022442869400024e-02
         - 1.5253602329914920e-01
         - -5.0864245118701790e-03
         - -1.2541301622771794e-01
         - -6.3217062396169157e-02
         - 4.4443808372905416e-02
         - 1.8117234240990163e-01
         - -3.1000387439624241e-02
         - -3.0795497763111669e-02
         - 5.9571130541534678e-02
         - 1.1339353012886152e-02
         - 8.3333388436987454e-02
         - -2.8485148601435754e-02
         - 9.6714928854917351e-02
         - -4.7419558900716578e-02
         - -6.7076056782506555e-03
         - -1.5396712699522258e-02
         - 1.0141404151234506e-02
         - -7.8882149562077508e-02
         - 3.3441913345637925e-02
         - -6.2968049694996277e-03
         - 1.6208657673831445e-01
         - -1.3721735325222119e-02
         - -1.2915221202481589e-01
         - -4.7269479204407737e-02
         - 3.1783466997810780e-03
         - 1.3680996111338589e-01
         - -1.9944872685074895e-02
         - -6.0134639879099096e-02
         - 6.2557896936103988e-02
         - 4.2675374756609749e-02
         - 1.4620838762841190e-01
         - 3.4669424407351851e-03
         - 1.4136510895899607e-01
         - -3.1209391296486960e-02
         - -1.2072837867226885e-02
         - -6.7606667742809215e-04
         - 2.8610607292544245e-03
         - -1.5167301505377961e-01
         - 5.6450558208252115e-02
         - 6.5664253468766337e-02
         - 9.9988323789756473e-02
         - -4.4599388516932542e-02
         - -1.4075279930989892e-01
         - -7.1247475157764584e-02
         - 9.9677655845713791e-03
         - 2.0330717093931333e-01
         - -5.2191221804604435e-02
         - -3.1280598166560973e-02
         - 3.4846980877987752e-02
         - 6.9753304139377036e-03
         - 1.0423229922106012e-01
         - -4.8335007039785868e-02
         - 1.1300302139613490e-01
         - -2.9587446399554219e-02
         - -4.7019123513373162e-04
         - -1.4921203780211831e-03
         - -3.4064853120756799e-02
         - -1.5375726807849058e-01
         - 3.5642023859161057e-02
         - 4.5482439015792582e-02
         - 1.5097367560679925e-01
         - -3.1667650900990420e-02
         - -1.3394230265738954e-01
         - -8.3074306739273976e-02
         - 1.3034549478300706e-02
         - 1.8502242688498410e-01
         - -2.1975501526727018e-02
         - -5.7325792805862974e-02
         - 3.4626544778374610e-02
         - -3.7398582852641495e-03
         - 8.9830257954525400e-02
         - -6.2330031776240274e-02
         - 1.4071553080791818e-01
         - -4.7252005995446870e-02
         - 1.2968621095183449e-02
         - -6.5156789161006524e-03
         - 1.8078635980694726e-02
         - -1.4687275219006829e-01
         - 2.7085081257024274e-02
         - 5.3430503180802356e-02
         - 1.4567676589285761e-01
         - 8.7034806126900024e-03
         - -7.6150404619739584e-02
         - -4.4090696031711674e-02
         - -3.1904290339377656e-03
         - 1.6034000281320326e-01
         - -5.5825652119575520e-02
         - -6.8639255931964030e-02
         - 8.4858665320343543e-02
         - 3.7617860844293513e-02
         - 1.4853948330554506e-01
         - -3.9555883346375768e-02
         - 9.3099258083669728e-02
         - -2.3919987072958171e-02
         - -2.6109309776898827e-02
         - -2.5376898355781649e-02
         - -3.4217826435827034e-02
         - -9.1422258618828051e-02
         - 8.6495674398513953e-02
         - 1.2442854818143400e-02
         - 1.2362051641088137e-01
         - -5.9086722888732728e-03
         - -1.2054154670278296e-01
         - -6.5647382719185909e-02
         - 3.9079199012635311e-02
         - 2.0652067653163442e-01
         - -4.7841259627665764e-02
         - -3.9499268254778751e-02
         - 6.9107173854704732e-02
         - 2.2566010488808377e-02
         - 1.2569674366116618e-01
         - -1.8515587418936771e-02
         - 8.0302449287284042e-02
         - -4.0688082858127084e-02
         - 2.4170797111396233e-02
         - -1.4060942883106235e-03
         - -1.1072156462935601e-03
         - -1.4495128283661202e-01
         - 1.5915877061248362e-02
         - -7.4853509395407026e-04
         - 1.6316559521392748e-01
         - 4.3934104037362297e-03
         - -1.3259037400607501e-01
         - -5.6305076415707256e-02
         - -2.8094115129870697e-02
         - 1.5017745191758206e-01
         - -5.4227232975692825e-02
         - -1.8923370702533970e-02
         - 9.8030226932627626e-02
         - 4.3047964877328045e-02
         - 9.0416097603680648e-02
         - -3.6517643183049932e-02
         - 1.0145165337389248e-01
         - -1.6880527783212734e-02
         - 2.4808431711584186e-02
         - 5.4319978214795329e-03
         - -6.2530766273459409e-02
         - -9.4388783890061972e-02
         - 2.4638232181206310e-02
         - 6.1795539966340206e-02
         - 1.5026700364453244e-01
         - -5.2434076344289648e-02
         - -1.2629351190194105e-01
         - -5.2473168683620300e-02
         - 2.9493426692365435e-02
         - 1.5331762060084206e-01
         - -1.6236539271907754e-02
         - -1.0660725334280753e-02
         - 2.3369933970629805e-02
         - 5.0511288599885849e-03
         - 8.5452524802873894e-02
         - -5.8299406448955690e-02
         - 1.3882545755851838e-01
         - 1.9104399131540935e-02
         - 2.8086120843055239e-02
         - -3.4061657852199792e-02
         - -3.2170237751272465e-02
         - -7.9460977674386424e-02
         - 5.5309927345845708e-02
         - 1.8629466750206779e-02
         - 1.4266434036373948e-01
         - -4.4459875919654522e-02
         - -1.3760634148002451e-01
         - -1.0111865826628445e-01
         - -2.0290607604172634e-02
         - 1.8181474710739842e-01
         - -1.8852076143529205e-02
         - -3.1336462827662309e-02
         - 2.7651350894374181e-02
         - -5.7467070306292970e-03
         - 1.2351042379158576e-01
         - -2.0661011200876968e-02
         - 1.2454796914967929e-01
         - -1.4042967989987174e-02
         - 2.9396292677076170e-02
         - -3.8787466481064861e-02
         - 6.8046917037827654e-03
         - -1.4767317308670930e-01
         - 5.2309992969579971e-02
         - 4.2116607383544079e-02
         - 1.4559744474887165e-01
         - -6.4426676575652948e-03
         - -9.6357313777991352e-02
         - -6.2353176606050074e-02
         - 4.9779336346847572e-02
         - 1.7528227828129778e-01
         - -4.9738962192142841e-02
         - -2.3721884311007383e-03
         - 5.6367076678608900e-02
         - 5.6993148846237414e-02
         - 9.2505883645220846e-02
         - 9.0352418103687524e-03
         - 6.6686149631969616e-02
         - 2.6099549752618380e-02
         - 2.8277874502600185e-03
         - -9.5483640860231280e-03
         - -2.3162441872972936e-02
         - -8.4815308149719951e-02
         - 1.6675323274769338e-02
         - 3.8472771145376734e-02
         - 9.8487822465819871e-02
         - 8.7827324302100387e-04
         - -1.4377676514867632e-01
         - -6.9435356049142846e-02
         - 3.7152711464668552e-02
         - 2.1551486746176299e-01
         - 1.2324017586545532e-03
         - -1.4417953022404208e-02
         - 8.9406145065095324e-02
         - 4.2196370985360887e-02
         - 8.2320521799841923e-02
         - -5.7623399089477001e-03
         - 6.5347570804846405e-02
         - -4.7313566676161004e-03
         - -6.6198006186879562e-03
         - -3.9516077936063862e-02
         - -1.6809596270780026e-02
         - -1.2512622761526174e-01
         - 8.7918278700074681e-02
         - 6.1148886276762245e-02
         - 1.4000862937053782e-01
         - -4.8434681317482478e-02
         - -1.2438371561127709e-01
         - -9.2994716399207700e-02
         - 1.6093065578497101e-02
         - 1.4537279597336683e-01
         - -1.4088897202027858e-02
         - -8.4802119821466276e-03
         - 5.3383875159087706e-02
         - 6.0418739028776376e-02
         - 1.2643341998303256e-01
         - -1.0095643063272751e-02
         - 9.8130116855599428e-02
         - 8.5328965723913078e-03
         - 3.9678074410715011e-02
         - 3.7816031882928119e-02
         - 1.4570856109576001e-02
         - -1.3825816665490592e-01
         - 2.4505447677210031e-02
         - 2.6117822120539463e-02
         - 1.2876603184512228e-01
         - 1.4995696583236065e-02
         - -1.3020978952735449e-01
         - -6.6727197366181781e-02
         - -3.0807597424845790e-02
         - 1.4358511363884541e-01
         - -2.6405379821110006e-02
         - -7.2404999325422242e-02
         - 5.4138071003404196e-02
         - -1.2314948348664798e-03
         - 9.7822565497622430e-02
         - -3.9680649712402476e-02
         - 1.1069025853431574e-01
         - -1.1959286361499042e-02
         - 2.5213719185646220e-02
         - -3.3393732652141427e-02
         - -3.7875606407186312e-02
         - -8.6344578407648753e-02
         - 1.2852970260304431e-02
         - 3.7944892868906774e-02
         - 1.1480543518659841e-01
         - -2.4788625044269545e-02
         - -1.3485306243137254e-01
         - -5.2509771855509459e-02
         - -2.6802092133282628e-02
         - 1.6355001178562584e-01
         - 3.5940199685226310e-03
         - -3.3292570239409749e-02
         - 7.8590952152610305e-02
         - 3.3601613898788935e-02
         - 9.5642565759056414e-02
         - 3.0856208491982168e-03
         - 1.3340975987284331e-01
         - 3.1084619245915282e-02
         - 1.9764444260349345e-02
         - -3.1013515473101435e-02
         - -4.4622470914417164e-02
         - -1.0223186827576040e-01
         - 6.8905284626692945e-02
         - 1.5068121881128122e-02
         - 1.5862155882147380e-01
         - -4.5854300103622000e-02
         - -1.3440363090868249e-01
         - -1.0590958186631808e-01
         - 5.0313188113852728e-02
         - 1.4929397179518542e-01
         - -9.8858226518899750e-03
         - -9.3795973774965721e-03
         - 9.3927691601890795e-02
         - 1.7406821831105323e-02
         - 8.6012004482908633e-02
         - -6.1660065710416469e-02
         - 1.2354433404453830e-01
         - 9.5774795056613009e-03
         - 1.1418283727874845e-02
         - 4.8849988732890181e-03
         - -3.9725284912551069e-02
         - -1.0159390902089085e-01
         - 7.4400528257051235e-02
         - 6.9951339954644920e-02
         - 1.4423731445001106e-01
         - -7.7215569483743335e-02
         - 9.2219590787351269e-01
         - -9.3776684824228818e-01
         - -5.2664646786062454e-02
         - -1.5090042135189281e+00
         - -7.8255594328693523e-01
         - 5.3035617024444016e-02
         - -3.8150194102162549e-01
         - -1.2841754816584847e+00
         - -1.3365250482386721e+00
         - -1.6894100345731439e-01
         - 8.4840520126099750e-01
         - 4.6016664754426680e-02
         - 8.5622495457912270e-02
         - -1.3953946312646728e+00
         - -4.0098331137141990e-01
         - 8.5694409391461135e-01
         - 1.2055241435916058e+00
         - 9.7752529383853415e-01
         - -1.5143023038412413e+00
      -
         - -2.1550792761126772e-01
         - -1.2895611961911319e-01
         - -4.6148394938060289e-01
         - 5.7098285222990108e-01
         - -2.0039251135877501e-01
         - 2.2316625594260170e-01
         - 1.1422206816493121e+00
         - -3.9408681610070911e-01
         - -2.2229598158270994e-01
         - -4.9307487507742709e-01
         - -1.2648881835673653e+00
         - -3.9724695085524681e-01
         - -7.4214072133468950e-02
         - 5.7963622889451638e-01
         - 1.3325939063496757e+00
         - 5.2860421039350936e-01
         - 8.4451504325286475e-01
         - 1.8402483484773921e-01
         - 7.3102699123632153e-02
         - -8.0585603489101287e-01
         - -4.2678736755969771e-01
         - 7.7877703077879001e-01
         - -9.3407420522618345e-01
         - 3.2627677838536839e-01
         - 1.0128320279543039e+00
         - 8.6032406496139269e-01
         - 5.2535473724477844e-01
         - 6.5462711276380381e-01
         - -1.6908431868495899e+00
         - 1.3684156597137379e-01
         - -1.1208439022838683e+00
         - 9.5389939785564842e-02
         - 9.4138326443802312e-01
         - 5.8980610329972982e-01
         - -1.7518627018593003e-01
         - 1.0088395047751757e+00
         - 9.3289498818496172e-02
         - -5.1198549411865013e-01
         - 7.3827090265605777e-01
         - -3.5233039842857816e-01
         - -2.0151909481267000e-01
         - 4.7885209909170995e-01
         - 5.0282984944851494e-01
         - 1.0539488671287471e+00
         - -5.2268030521351527e-01
         - -5.2470610452020050e-01
         - -4.7825253546193952e-01
         - 7.5057541251077431e-01
         - 5.7040351163387759e-01
         - -3.1914496706569628e-01
         - -1.0333999943002390e+00
         - 5.3705759096389072e-01
         - 1.1939316941981639e+00
         - 6.0399140798818796e-01
         - -1.6596204084454180e+00
         - 3.5489884909045910e-01
         - 1.4168353207868274e+00
         - 5.7033730451088516e-01
         - -4.0562417219639268e-01
         - 7.5161121119335128e-01
         - -1.8809009004819818e-01
         - 7.4950581312887599e-01
         - 1.8725046691662717e-01
         - -7.4626925853084969e-01
         - 1.0464557326980781e+00
         - 7.7224694550314621e-01
         - -1.0599010606107304e+00
         - -3.8798665765674806e-01
         - -3.4834866153181526e-01
         - 4.8647170645096083e-01
         - -1.0535286096733594e+00
         - -5.2331904139138918e-01
         - -5.2311862579051471e-01
         - -1.5042703562797682e-01
         - 8.6801693162616955e-01
         - 4.2375510302549690e-01
         - 2.3098180993001607e-01
         - -3.4218573022192816e-01
         - -2.5582968309772608e-01
         - 9.4056413121107862e-01
         - -1.8300936882389712e-01
         - 6.8796045521299998e-01
         - -1.9711932084217859e-01
         - -1.1663641741813429e+00
         - 7.3700303351803165e-01
         - 3.1014618784344045e-01
         - -1.5548828826672119e+00
         - 6.6801308681588445e-01
         - -2.4671156640999237e-01
         - 8.8141766939001931e-01
         - -1.0493790544969961e+00
         - 7.6976156104717397e-01
         - 2.7822503529385256e-01
         - 6.3191297782764511e-01
         - -7.1068731006853805e-02
         - 8.9967063410779902e-01
         - -4.6859941640520536e-01
         - 7.3822093734533713e-03
         - 9.4433605247534536e-01
         - 1.7084954724022491e-01
         - -1.3711547725571895e+00
         - 3.1976200122809278e-01
         - -7.2257795670670544e-01
         - 3.2822689956728895e-01
         - -1.3067803455878211e+00
         - 8.1371117688947212e-02
         - 7.9634835465957776e-01
         - -7.0957790194331449e-01
         - -1.2875872841914549e+00
         - -1.0534954831044725e-01
         - -2.4037428601138031e-01
         - -1.0194686770072862e-01
         - 4.5011537801189688e-01
         - 4.7281761447342890e-01
         - 9.5854897170102638e-01
         - -1.0203614697715058e+00
         - 1.7856934614397173e+00
         - 2.6514292978044746e-01
         - 5.1116045453760439e-01
         - 6.8332550424954175e-01
         - 1.4437553885960746e-02
         - -8.9153465256687037e-01
         - 1.2410385182165393e-01
         - -6.5079955698494640e-01
         - -3.0970759678038254e-02
         - 3.8157390529927053e-02
