%YAML:1.0
opencv_ml_ann_mlp:
   format: 3
   layer_sizes: [ 7, 20, 6 ]
   activation_function: SIGMOID_SYM
   f_param1: 6.6666666666666663e-01
   f_param2: 1.7159000000000000e+00
   min_val: -9.4999999999999996e-01
   max_val: 9.4999999999999996e-01
   min_val1: -9.7999999999999998e-01
   max_val1: 9.7999999999999998e-01
   training_params:
      train_method: BACKPROP
      dw_scale: 1.0000000000000000e-03
      moment_scale: 0.
      term_criteria:
         iterations: 10000
   input_scale:
      - 3.2396108202614697e-08
      - 3.1622776578457561e+00
      - 3.2396108636418710e-08
      - 3.1622777044251049e+00
      - 3.2396109228211673e-08
      - 3.1622777679683867e+00
      - 3.2396108684671431e-08
      - 3.1622777096062009e+00
      - 3.2396107017608126e-08
      - 3.1622775306066520e+00
      - 3.2396108896082675e-08
      - 3.1622777323063089e+00
      - 3.2396109524780718e-08
      - 3.1622777998122436e+00
   output_scale:
      - 5.2631578947368418e-01
      - 4.9999999999999994e-01
      - 5.2631578947368418e-01
      - 4.9999999999999994e-01
      - 5.2631578947368418e-01
      - 4.9999999999999994e-01
      - 5.2631578947368418e-01
      - 4.9999999999999994e-01
      - 5.2631578947368418e-01
      - 4.9999999999999994e-01
      - 5.2631578947368418e-01
      - 4.9999999999999994e-01
   inv_output_scale:
      - 1.8999999999999999e+00
      - -9.4999999999999996e-01
      - 1.8999999999999999e+00
      - -9.4999999999999996e-01
      - 1.8999999999999999e+00
      - -9.4999999999999996e-01
      - 1.8999999999999999e+00
      - -9.4999999999999996e-01
      - 1.8999999999999999e+00
      - -9.4999999999999996e-01
      - 1.8999999999999999e+00
      - -9.4999999999999996e-01
   weights:
      -
         - -1.4864738911091233e-01
         - -1.5896006164920698e-01
         - -1.7244263472259388e-01
         - 1.9307354273021571e-01
         - -1.6491469045013668e-01
         - -2.3245596933913701e-01
         - 6.9379501347147335e-02
         - 2.8454814129867640e-04
         - -2.6865873018291693e-02
         - 1.4081267992625549e-01
         - -1.8288548138693239e-01
         - -1.0102796743433043e-01
         - -1.6073577330892480e-01
         - -2.6433180730695116e-01
         - -7.7746624921212398e-02
         - 1.0929094652513471e-01
         - 2.2810359552490944e-01
         - 3.7017169815326344e-02
         - 2.0111096021764049e-01
         - -4.4037792330541746e-02
         - 8.6526681202329980e-02
         - 1.7293778703541021e-01
         - 1.3729524905947144e-02
         - -8.3670746472149088e-02
         - 2.4912904856358418e-02
         - -1.8279788747575459e-01
         - 1.2310980640972474e-01
         - -1.1379825248071529e-01
         - -7.1294955978281199e-02
         - -2.5555860968012462e-01
         - -1.4054450716899056e-01
         - -5.2526639177628912e-02
         - 1.0890560955884111e-01
         - -3.3737493342282110e-01
         - 2.2814313523947344e-01
         - 1.5207190086166680e-02
         - 1.6827220011207308e-01
         - 1.0929153860046077e-01
         - -1.8768613570354761e-01
         - 2.4157703337626732e-01
         - -5.7374537350148386e-02
         - 1.8832720244230697e-01
         - -1.3336898490629226e-01
         - -6.9912695245844925e-02
         - -5.8071964520442478e-02
         - 5.3947162389996695e-02
         - -1.5683248774193742e-01
         - 2.7463502829089337e-01
         - 2.5935617324495114e-01
         - -2.6413447730000411e-01
         - -3.7854162341772711e-02
         - -1.3966204102063914e-01
         - 6.7761546336919706e-02
         - -1.5935618017334621e-01
         - 1.1872578457554486e-01
         - 2.2863797014579093e-01
         - 1.1498507746598415e-01
         - 1.3893582357417311e-01
         - -5.8023628357189286e-02
         - 2.4255972841587117e-01
         - -1.5210795495117038e-01
         - 1.8573650914066948e-02
         - -8.9292624214933905e-02
         - -8.5522207096650885e-02
         - -3.5480365990859297e-01
         - 9.9536789365824052e-02
         - 1.1060151367178046e-01
         - 1.4674321391319833e-01
         - -7.0318940879736266e-02
         - -5.3591204666414545e-02
         - -5.8649376573576079e-02
         - 1.7805062533810437e-01
         - 5.1806444758153387e-02
         - -4.4215809746426388e-02
         - -3.1642650733697375e-02
         - 3.4569195883137982e-01
         - 1.7765409149809500e-01
         - -2.3739449230014131e-01
         - 2.1377802925224912e-01
         - -5.2535353453303782e-03
         - -1.3230777305458805e-01
         - -1.8344348927683604e-01
         - 2.3230803924292928e-01
         - 2.0729692551289869e-01
         - -2.3053068629324808e-01
         - -2.0755002234650685e-01
         - -9.3930101599658242e-02
         - 2.5519516384507834e-01
         - 1.7329514885405028e-01
         - 3.0033261045217158e-02
         - -1.2316678852456596e-01
         - -1.8718832985816339e-01
         - 1.2048132214671312e-01
         - -7.3448758322174679e-02
         - 1.7124439447860920e-01
         - -2.2334171926132371e-01
         - 3.2061509317245163e-01
         - 6.2502357726579916e-02
         - 4.7128196423140575e-02
         - -1.3722198013475562e-01
         - -8.6517435684089636e-02
         - -1.6203853386833536e-01
         - -1.8880528127570531e-01
         - -6.6176033464483128e-02
         - 1.5743271453553431e-01
         - 1.8745055836567695e-01
         - 6.3856240642733778e-02
         - -8.7938504348180610e-02
         - -9.2082668436098483e-02
         - -2.3029935278388833e-01
         - -8.5290292865037518e-02
         - -3.7817103193179449e-02
         - 2.2209258938595544e-01
         - 1.1923763990360312e-01
         - 1.9516117799390006e-01
         - -7.7441082680322321e-02
         - 1.0566573378251672e-01
         - 7.7134465942623881e-03
         - 6.3074192777651236e-02
         - -1.2644193840846282e-01
         - 2.0110060569359764e-01
         - -1.2518192055675989e-01
         - -7.6785745137669878e-02
         - -6.4127090422865657e-02
         - 1.7011831411964388e-02
         - -6.0299066568301862e-02
         - -3.3732516481899749e-01
         - -3.6580882098809102e-02
         - -8.3834175436028141e-02
         - 4.2798318359673529e-02
         - 2.3612320638879744e-01
         - -8.2691953711059654e-02
         - 1.0246722334387116e-01
         - 1.3944876662250358e-01
         - -2.0392544429420334e-01
         - 8.5601849819316941e-03
         - -3.5477815783652834e-04
         - -1.7454656837232796e-01
         - 2.2214576033236880e-01
         - 1.9591968168715293e-01
         - 3.8172309046672798e-01
         - -9.2581144122354259e-03
         - 5.8886787812253716e-01
         - 2.4299574005197577e-01
         - -3.3119503321512572e-01
         - 4.0592116872485423e-01
         - -4.4994372239723940e-01
         - 1.6589333969536010e-01
         - -8.2101812306531810e-02
         - -2.7414570284852940e-01
         - 1.0682283980787811e-01
         - -2.6059028055781353e-01
         - 2.5543457910863776e-01
         - 2.8639158390342978e-01
         - 7.2934648117387132e-02
         - -5.5256141783990194e-02
         - -2.1357569326753062e-01
         - 5.6706711559885603e-01
         - 1.1063588443587589e-01
         - -2.6657222408521158e-01
      -
         - -6.2331699520135442e-01
         - -2.0782211846621271e-01
         - 5.7978586537126109e-01
         - 4.8973243609151379e-01
         - -3.7127718448416808e-01
         - -7.2016395329425575e-01
         - 4.4526334853994054e-01
         - -9.4389713109904877e-03
         - -3.1386160094726286e-02
         - 3.1966350761122908e-01
         - 5.2616421836801897e-01
         - -3.8689359223622660e-01
         - -1.0922214067901688e+00
         - -6.1098184464200116e-03
         - 1.8558029604037690e-01
         - 7.2824759236789671e-01
         - 8.8420139516323486e-03
         - -1.0095234885830471e+00
         - 3.9819898365629125e-01
         - -3.3392631099768477e-01
         - -7.0097020285742873e-01
         - -3.6548076254909873e-01
         - 5.7713402043419321e-02
         - -7.2550943987110483e-01
         - 4.7088879357486341e-01
         - 7.6966175095486478e-01
         - -2.3350652055400928e-01
         - -9.1825781822149766e-01
         - 1.0050535878079867e+00
         - 3.3492425583302948e-01
         - -3.2749332792100194e-01
         - -9.6919591338283195e-01
         - -5.5721286392251645e-01
         - 1.4985867670967451e-01
         - 9.2454583346559793e-01
         - -8.3539905700691044e-02
         - 4.7695710924245410e-01
         - 5.3076977524927127e-01
         - 5.5111287150406529e-02
         - 1.6362089134657185e-01
         - 1.1569555372033295e-02
         - 5.6020057780378762e-01
         - 6.6123744501884407e-01
         - -7.5632903754290437e-01
         - 5.5329319005291526e-02
         - -9.4446939659926366e-01
         - -8.1539847645132901e-01
         - 5.9246612968048874e-02
         - -4.7358337289603154e-02
         - 9.7696642254525823e-01
         - -6.4825624155987827e-01
         - 6.2759472824017148e-01
         - -3.4701708017956451e-01
         - -7.3023685533827420e-01
         - -1.9518792012972289e-01
         - 7.0419181026195254e-01
         - 4.4234243687573130e-02
         - 2.2983055149179360e-01
         - 8.1823203851544668e-01
         - 3.4841802417731105e-01
         - -7.2871237094523311e-02
         - 1.5136341665567685e-01
         - 8.9347739693237738e-01
         - -4.0045055659177620e-01
         - -7.7392356487734726e-01
         - -2.8435963912559764e-01
         - 5.7075944228761388e-01
         - -9.2643917604101256e-01
         - 5.4672226851812548e-02
         - 7.2404087124745975e-01
         - -1.0393892431736226e-01
         - 5.7534937527805607e-01
         - 3.7709383476179756e-04
         - -9.4167099804037202e-01
         - -8.1094082661089351e-01
         - -6.2460846324883457e-01
         - 4.6653571356111273e-01
         - 5.9423699218722925e-01
         - -1.0260092619891605e+00
         - 9.3916217361781229e-01
         - 2.9859316638046474e-01
         - -5.8104904500291055e-01
         - 1.9480564815403786e-01
         - -2.2803562161713084e-01
         - -3.3351277965071557e-01
         - 4.8982035384972406e-01
         - -7.8281626696671069e-01
         - 1.1725697823482534e-01
         - -2.3932035371382271e-01
         - -8.2720589344848286e-03
         - 7.7782798649254326e-01
         - 4.0370811537153099e-02
         - -9.6555621555550897e-01
         - -1.0669757401087238e-02
         - 5.1123490935298721e-01
         - -6.2619316305508355e-01
         - -6.1693458298677402e-02
         - 5.5216796890372510e-01
         - 6.4645169682258052e-01
         - 9.5161048583878627e-01
         - 7.5761123027505073e-01
         - -3.4143350551734432e-02
         - -9.4488921070051768e-01
         - 3.7452640331396653e-01
         - 5.9031005398311931e-01
         - -7.8816852060397991e-01
         - 5.5498790753841942e-01
         - -7.8739357349670858e-01
         - 4.0141098331940306e-01
         - 6.5983259902119817e-01
         - 4.7682793486167624e-01
         - -7.8299359293016479e-01
         - -2.0913058546973035e-01
         - -5.9498859247243874e-01
         - 7.4272936357194075e-01
         - 5.2002096594087710e-01
         - 7.2504430557580257e-01
         - -2.5415151825685561e-01
         - -6.7541445799306266e-02
         - -6.3482072245906351e-01
         - 2.1251555202903430e-01
         - -8.4295868876238089e-01
         - -7.8568729314484376e-01
         - -1.0376049956274453e+00
         - -6.6048609195726449e-01
         - -4.3501966979339274e-01
