%YAML:1.0
opencv_ml_ann_mlp:
   format: 3
   layer_sizes: [ 48, 6 ]
   activation_function: SIGMOID_SYM
   f_param1: 6.6666666666666663e-01
   f_param2: 1.7159000000000000e+00
   min_val: -9.4999999999999996e-01
   max_val: 9.4999999999999996e-01
   min_val1: -9.7999999999999998e-01
   max_val1: 9.7999999999999998e-01
   training_params:
      train_method: BACKPROP
      dw_scale: 1.0000000000000000e-03
      moment_scale: 0.
      term_criteria:
         iterations: 10000
   input_scale:
      - 1.8667983044379997e-08
      - 1.0690449502787882e+00
      - 1.8667982971084783e-08
      - 1.0690449424087753e+00
      - 1.8667982988093264e-08
      - 1.0690449442350469e+00
      - 1.8667982895896478e-08
      - 1.0690449343354931e+00
      - 1.8667983116393408e-08
      - 1.0690449580111687e+00
      - 1.8667982947897131e-08
      - 1.0690449399190201e+00
      - 1.8667983002376090e-08
      - 1.0690449457686533e+00
      - 1.8667982988587965e-08
      - 1.0690449442881649e+00
      - 1.8667983069702249e-08
      - 1.0690449529977442e+00
      - 1.8667982879106448e-08
      - 1.0690449325326774e+00
      - 1.8667983100694741e-08
      - 1.0690449563255375e+00
      - 1.8667982966051343e-08
      - 1.0690449418683137e+00
      - 1.8667983092828333e-08
      - 1.0690449554808883e+00
      - 1.8667982975163363e-08
      - 1.0690449428467095e+00
      - 1.8667983036485405e-08
      - 1.0690449494311129e+00
      - 1.8667982903370763e-08
      - 1.0690449351380380e+00
      - 1.8667983134333705e-08
      - 1.0690449599374936e+00
      - 1.8667982954416396e-08
      - 1.0690449406190208e+00
      - 1.8667983065330338e-08
      - 1.0690449525283139e+00
      - 1.8667982997627011e-08
      - 1.0690449452587247e+00
      - 1.8667983119436810e-08
      - 1.0690449583379518e+00
      - 1.8667982888832954e-08
      - 1.0690449335770527e+00
      - 1.8667983131984823e-08
      - 1.0690449596852842e+00
      - 1.8667982978534901e-08
      - 1.0690449432087257e+00
      - 1.8667983093638573e-08
      - 1.0690449555678871e+00
      - 1.8667982989122185e-08
      - 1.0690449443455263e+00
      - 1.8667983098485507e-08
      - 1.0690449560883228e+00
      - 1.8667982903012263e-08
      - 1.0690449350995443e+00
      - 1.8667983127902379e-08
      - 9.3541433829072296e-01
      - 1.8667982977389445e-08
      - 9.3541432212952091e-01
      - 1.8667983069222580e-08
      - 9.3541433199002821e-01
      - 1.8667982952984116e-08
      - 9.3541431950901888e-01
      - 1.8667983077287058e-08
      - 9.3541433285594455e-01
      - 1.8667982926412206e-08
      - 9.3541431665588182e-01
      - 1.8667983118436379e-08
      - 9.3541433727431889e-01
      - 1.8667982977084189e-08
      - 9.3541432209674424e-01
      - 1.8667983061981643e-08
      - 9.3541433121253836e-01
      - 1.8667982944192884e-08
      - 9.3541431856506752e-01
      - 1.8667983045332207e-08
      - 9.3541432942481906e-01
      - 1.8667982928710071e-08
      - 9.3541431690261334e-01
      - 1.8667983116828799e-08
      - 9.3541433710170652e-01
      - 1.8667982970757329e-08
      - 9.3541432141740288e-01
      - 1.8667983030256368e-08
      - 9.3541432780606315e-01
      - 1.8667982945245540e-08
      - 9.3541431867809555e-01
      - 1.8667983041906585e-08
      - 9.3541432905699573e-01
      - 1.8667982919587797e-08
      - 9.3541431592311675e-01
      - 1.8667983102267568e-08
      - 9.3541433553820619e-01
      - 1.8667982968764555e-08
      - 9.3541432120343049e-01
   output_scale:
      - 5.2631578947368418e-01
      - 4.9999999999999994e-01
      - 5.2631578947368418e-01
      - 4.9999999999999994e-01
      - 5.2631578947368418e-01
      - 4.9999999999999994e-01
      - 5.2631578947368418e-01
      - 4.9999999999999994e-01
      - 5.2631578947368418e-01
      - 4.9999999999999994e-01
      - 5.2631578947368418e-01
      - 4.9999999999999994e-01
   inv_output_scale:
      - 1.8999999999999999e+00
      - -9.4999999999999996e-01
      - 1.8999999999999999e+00
      - -9.4999999999999996e-01
      - 1.8999999999999999e+00
      - -9.4999999999999996e-01
      - 1.8999999999999999e+00
      - -9.4999999999999996e-01
      - 1.8999999999999999e+00
      - -9.4999999999999996e-01
      - 1.8999999999999999e+00
      - -9.4999999999999996e-01
   weights:
      -
         - -6.1142164438333590e-01
         - 9.9281369515484649e-02
         - -1.6485459858932242e-01
         - 2.5347848942628470e-01
         - -4.0489022946837189e-01
         - 5.1689944955884237e-01
         - 5.2865007297425337e-01
         - -8.4586884641076709e-01
         - -2.2624279471327277e-01
         - -2.9379683996814326e-01
         - 1.1150192505682487e-01
         - -2.8693980998959544e-02
         - -1.6895110013132941e-01
         - 5.7050481846323269e-02
         - 3.7987726759623724e-02
         - -2.4143039771178246e-01
         - 1.8833721675369623e-02
         - 4.0459961748330726e-02
         - -6.2819767994345987e-01
         - -6.3349579749967810e-01
         - 4.2894271622245539e-01
         - 2.8095800324156256e-01
         - 2.6456664337375807e-01
         - 9.6921841504010398e-01
         - -5.4539803411552001e-01
         - 9.8234207329310075e-01
         - 5.4715006190340587e-01
         - 1.9385857589987024e-01
         - 3.2595112085726102e-01
         - 5.9599486824818215e-01
         - -3.2341664997310965e-01
         - -3.7213956703431128e-01
         - 4.9082310471899387e-01
         - -6.8946963912156167e-01
         - -5.1724096810742659e-01
         - -3.0813217443331348e-01
         - 1.0708917661041779e+00
         - 3.5755317095340533e-01
         - -6.3996523466556976e-01
         - 2.4625922972481040e-01
         - 4.1856490833860582e-01
         - -1.1057825891849662e+00
         - -2.0820718578227787e-01
         - 3.1891632810859899e-01
         - -9.3198615931946394e-01
         - 2.4947868359508246e-01
         - -1.9690778306620210e-01
         - -6.7278384564243998e-01
         - -8.2905799300704708e-01
         - -8.4825397207800823e-01
         - -6.7152255039339726e-01
         - 4.2623166628910157e-02
         - 8.1119303216629635e-01
         - 6.8128477623603079e-01
         - 4.7887238304669671e-01
         - 5.0276445944360770e-01
         - -2.1120006164845062e-01
         - -3.8973075830318760e-01
         - -8.2808922168571650e-02
         - -9.1711704517708370e-01
         - 5.3951840388859773e-01
         - 5.7941111738495969e-02
         - -3.2807118092475657e-01
         - -3.5441331191475678e-01
         - 3.4958521037750800e-01
         - -2.5140466891450430e-01
         - -1.2943992992960413e-01
         - 4.3515024284119863e-01
         - 4.4227449737565661e-01
         - 7.0170517618125328e-01
         - 6.4704783113412961e-02
         - 4.2111710053802631e-01
         - -9.1226811317816639e-02
         - -2.7729919876226022e-01
         - 7.3522341507889810e-01
         - -3.9050690769153136e-02
         - -1.0157811354399243e-01
         - -1.6361150856143231e-01
         - -6.8749742127482433e-03
         - -9.8671071887660514e-02
         - 5.8202010916043112e-01
         - -1.7977945203046264e-01
         - -6.2246662776609098e-02
         - -5.4063329714421715e-01
         - 1.3836814384046586e-01
         - 4.3447471432190155e-01
         - -5.8761226704074576e-01
         - 8.1278711534639481e-01
         - -7.9014930529184435e-01
         - 2.1681560224259175e-01
         - -1.0097597001217802e-01
         - -1.2676140347545556e-01
         - 5.0849930586329173e-01
         - -6.0124588539425017e-01
         - -1.1833285226454977e-01
         - 5.0116628633617843e-01
         - -2.1254487589193577e-01
         - -6.3268219408839155e-01
         - 2.1921082286569395e-02
         - 2.0797369118798464e-01
         - 7.5215355540160678e-01
         - 6.3117151749780831e-01
         - 3.1125152649366405e-01
         - 8.4546914793822625e-01
         - -5.1690236121265942e-01
         - 1.5316024367822717e-01
         - -1.0393576700979247e-01
         - -9.9520454571993974e-02
         - -1.0261095119541615e-01
         - -6.2831899856358608e-01
         - 2.1011390578850062e-01
         - -4.8918671712049344e-01
         - -9.0764695480281232e-01
         - 2.6194124745837447e-02
         - 2.1398142874330003e-02
         - 4.6073975954321778e-01
         - 2.9581621251309059e-01
         - 1.5379368351646988e-01
         - 1.6694977934459698e-01
         - -5.3357267502931383e-01
         - 8.6507814743077860e-01
         - -3.8952222317481089e-01
         - -8.2713995054228084e-01
         - 5.9469985116920954e-01
         - -6.6480358191558120e-01
         - -2.4341915778000170e-02
         - -3.1972655783720050e-01
         - -3.5264796244196139e-01
         - 6.9703133188648958e-01
         - -1.4327993033969730e-01
         - -8.5188255922938860e-01
         - 2.8003288040314228e-01
         - -4.5589676896738169e-03
         - -3.6425847162099029e-01
         - 2.1969596187452051e-01
         - -3.4145910130600138e-01
         - 7.7311188817705023e-01
         - -2.7593768330304708e-01
         - -4.7737489250023457e-01
         - 1.0551987855097611e+00
         - -7.7406839495693422e-02
         - -1.3796193949373070e-01
         - 7.2103999788620188e-01
         - -5.7591085021751073e-02
         - 1.1944898155736126e+00
         - -3.2696970693757782e-01
         - 5.7116038989501428e-01
         - 3.9417363710797859e-01
         - 3.3974156979899539e-01
         - 1.0967217932463012e-01
         - -4.1048728810685325e-01
         - -3.5301467095937056e-01
         - 9.4079986484008471e-01
         - -1.1804151890252419e-01
         - 5.6202135851136636e-01
         - -1.8198352492876360e-01
         - -3.3069754996724032e-01
         - 2.8640715571505371e-01
         - -8.5612581960441714e-01
         - -1.1106095513439238e+00
         - -8.0741037397650639e-01
         - 3.5126584215873435e-01
         - -4.2122478620975273e-01
         - 5.4037540750058455e-01
         - -3.9539282055767377e-01
         - -4.5638690847019675e-01
         - 3.8768871863200738e-01
         - -5.8658849156997421e-02
         - 7.5562678385839077e-01
         - -1.4161765257040348e-01
         - -3.6203535155743294e-01
         - 7.3802338785389743e-01
         - 4.1856869906964889e-01
         - -6.8424378685870901e-01
         - -8.3037827735665926e-01
         - 6.8778246081754657e-01
         - -4.3395649518397234e-01
         - -1.2767618151432847e-01
         - 9.0841491941318575e-01
         - 3.5750421744805710e-01
         - -8.1849538710919689e-01
         - 4.6599829985213820e-01
         - 2.8195047837353332e-01
         - -8.6775204087578328e-01
         - -2.4871687518970070e-01
         - -2.2974917115298601e-01
         - 4.2541602028009323e-01
         - -6.1209818177269459e-01
         - 1.2236595777271905e-01
         - 4.0977113273147991e-01
         - -8.8142673299151431e-01
         - 5.7444055891077783e-01
         - -1.7133025563110987e-01
         - -4.3128552858224123e-01
         - -1.9763362751858866e-02
         - 6.5486917197053596e-01
         - 2.8728055474452951e-01
         - 7.2541239802173807e-01
         - 3.9965448313565249e-01
         - 7.2427872165186707e-03
         - 1.4738970099613541e-01
         - 8.1067817731216829e-01
         - 1.9627375721380524e-01
         - -1.3206840355859725e-01
         - 1.5004327223519753e-01
         - -8.1560969134974987e-02
         - 5.2870054019192547e-01
         - -1.8530717821367526e-01
         - -8.4197326179113918e-01
         - 8.8549588296474163e-02
         - -7.4249954923742423e-01
         - -3.5707581368283037e-01
         - -4.4620247472559112e-02
         - -2.1437749167811111e-02
         - 7.1431292045249772e-01
         - -5.5494520829890748e-01
         - -3.6869734491720213e-01
         - -1.9532821214602880e-01
         - -3.2740208585179492e-01
         - 5.2581306491488088e-02
         - 2.8638043723760542e-01
         - 4.8027786542480293e-02
         - 7.9826233304096528e-01
         - 1.1772343951404252e+00
         - 6.0470602426619724e-01
         - -3.3902415012744402e-01
         - -2.9128029446403791e-01
         - -6.2747025034548598e-01
         - 3.7588868196313957e-01
         - 1.2294180098369739e-01
         - 8.9278194215329870e-02
         - 6.8119799822269800e-01
         - 7.8951967497666642e-01
         - -4.6814203606443361e-01
         - 6.7367688008791271e-01
         - -1.6321964372450085e-01
         - 3.1265695978764130e-01
         - -9.4010395906293986e-01
         - -5.2912439000069100e-01
         - -5.9557245482137477e-01
         - -9.6896860637563320e-01
         - -1.3666340305841468e-02
         - 4.0427872084290850e-01
         - 4.4983665961754021e-01
         - -4.5563038424311086e-01
         - 1.6255149252433046e-01
         - -7.3846681096359468e-01
         - -2.8234736057881693e-01
         - -7.5884754857588199e-01
         - -7.5175677646093797e-01
         - 2.1130843559999954e-01
         - 1.1035506038778310e-01
         - 3.6045140202473624e-01
         - 6.9731599069899397e-01
         - 1.6804537419271082e-01
         - 9.3945645259971855e-01
         - 5.8423644682395359e-02
         - -5.0600627342347704e-01
         - 5.7206831770508670e-01
         - -4.2889408996072870e-01
         - -1.2910687014982079e-03
         - 6.3470182802216080e-01
         - 1.0000213568081537e+00
         - 5.1115343850160788e-01
         - -8.5336074053317479e-01
         - 3.1690333772253887e-02
         - -5.6460310090335486e-01
         - 1.2640242325959680e-01
         - -6.4157309979922850e-01
         - 2.0540456738897370e-01
         - 9.8014464509928578e-01
         - -1.0668075733704144e-01
         - 6.3461512287805291e-02
         - -1.0055968856121167e+00
         - -6.8341020579225964e-01
         - -4.0372597831680082e-02
         - -1.6985435009598149e-01
         - -2.1695532989652494e-01
         - 4.0340347122023068e-01
         - -9.0891666492470535e-01
         - -2.1615275146532895e-01
         - 5.5828088733373993e-01
         - -7.7877379892090959e-01
         - -2.0628288393408939e-01
         - -8.7339969317327826e-01
         - 9.5234310656975174e-01
         - -5.4980132784511559e-01
         - 2.8928141399177904e-01
         - -1.5088994591402598e+00
         - -1.7016070698496273e+00
         - -1.2420397114970350e+00
         - -5.5329366785158640e-01
         - -1.1423148187227901e+00
         - -1.7643329273626078e+00
